tree
version=v4
num_class=1
num_tree_per_iteration=1
label_index=0
max_feature_idx=202
objective=regression
feature_names=Column_0 Column_1 Column_2 Column_3 Column_4 Column_5 Column_6 Column_7 Column_8 Column_9 Column_10 Column_11 Column_12 Column_13 Column_14 Column_15 Column_16 Column_17 Column_18 Column_19 Column_20 Column_21 Column_22 Column_23 Column_24 Column_25 Column_26 Column_27 Column_28 Column_29 Column_30 Column_31 Column_32 Column_33 Column_34 Column_35 Column_36 Column_37 Column_38 Column_39 Column_40 Column_41 Column_42 Column_43 Column_44 Column_45 Column_46 Column_47 Column_48 Column_49 Column_50 Column_51 Column_52 Column_53 Column_54 Column_55 Column_56 Column_57 Column_58 Column_59 Column_60 Column_61 Column_62 Column_63 Column_64 Column_65 Column_66 Column_67 Column_68 Column_69 Column_70 Column_71 Column_72 Column_73 Column_74 Column_75 Column_76 Column_77 Column_78 Column_79 Column_80 Column_81 Column_82 Column_83 Column_84 Column_85 Column_86 Column_87 Column_88 Column_89 Column_90 Column_91 Column_92 Column_93 Column_94 Column_95 Column_96 Column_97 Column_98 Column_99 Column_100 Column_101 Column_102 Column_103 Column_104 Column_105 Column_106 Column_107 Column_108 Column_109 Column_110 Column_111 Column_112 Column_113 Column_114 Column_115 Column_116 Column_117 Column_118 Column_119 Column_120 Column_121 Column_122 Column_123 Column_124 Column_125 Column_126 Column_127 Column_128 Column_129 Column_130 Column_131 Column_132 Column_133 Column_134 Column_135 Column_136 Column_137 Column_138 Column_139 Column_140 Column_141 Column_142 Column_143 Column_144 Column_145 Column_146 Column_147 Column_148 Column_149 Column_150 Column_151 Column_152 Column_153 Column_154 Column_155 Column_156 Column_157 Column_158 Column_159 Column_160 Column_161 Column_162 Column_163 Column_164 Column_165 Column_166 Column_167 Column_168 Column_169 Column_170 Column_171 Column_172 Column_173 Column_174 Column_175 Column_176 Column_177 Column_178 Column_179 Column_180 Column_181 Column_182 Column_183 Column_184 Column_185 Column_186 Column_187 Column_188 Column_189 Column_190 Column_191 Column_192 Column_193 Column_194 Column_195 Column_196 Column_197 Column_198 Column_199 Column_200 Column_201 Column_202
feature_infos=[-2.4239658180719084:0.9584046601728331] [-1.1038308254366511:0.56393753189392315] [-0.82063892236591085:0.45059882612330521] [-0.66653242990701778:0.65623375872267442] [-1.4239208838645714:0.56816430864775047] [-1.099506884097009:0.50811183939895865] [-2.2914048098235211:1.5628430328411498] [-1.9468916438364343:1.3709627268734097] [-1.3131079880591607:1.1630118915129692] [-3.1026091797688662:2.3595626429696774] [-1.0853071421364635:0.86194072623829976] [-1.1038308254366511:0.56393753189392315] [-1.5495004051919095:0.46868937762228302] [-0.81277111773767963:4.550216809073115] [-1.1382620225028621:0.94897408998888322] [-1.1000971698359088:0.95457321948446816] [-1.1382620225028623:0.94897408998888322] [-3.4613583870810283:1.4779158095551133] [-3.4849710250243331:4.3984256929096865] none none [-7.9630984055758489:4.2583562606343293] [-3.8438745751326802:4.0983606290813839] [-0.56070006892304036:5.4399688874970913] [-1.8419530278184482:9.4705456723019097] [-0.80901699437494745:0.80901699437494734] [-0.99999999999999978:0.61803398874989501] [-0.7320508075688773:0.73205080756887764] [-0.73205080756887708:0.63397459621556118] [-0.99562028017823723:0.32655313906787398] [-0.97188157119408591:0.27463547707687957] [-0.80000189720170822:0.33177174781817265] [-0.5852537394481746:1.0968196201808569] [-0.96344963480583412:0.26344096526634259] [-0.86101168123080418:0.32118002952719782] [-0.61711947316839644:0.38018268961986412] [-0.76035189626948307:0.71469543191147977] [-0.98250049523745997:0.74154847870315921] [-0.23348245770205064:0.43679969469552843] [-1.1552994691739058:0.44689801734928059] [-0.97188157119408591:0.27463547707687957] [-1.0164013940954899:0.17766087124166766] [-0.47213563259346947:1.7499364429663224] [-0.18774528160177295:0.26595120041760451] [-0.17437016090924465:0.33171175569081984] [-0.18774528160177295:0.26595120041760462] [-0.22649386645792111:0.38337040971707687] [-0.19565382737204193:0.4892608616836675] none none [-0.12501699690702256:0.2099615738390779] [-0.26041295769635747:0.31758302026058771] [-0.25654184509309697:2.3971510085238581] [-0.78797939855124743:1.6319690064697141] [-0.021816949906249123:0.035300566479164915] [-0.32002710206251911:-0.24942596910418938] [-0.66993587371177699:0.66830127018922214] [-0.6683012701892217:0.439871747423554] [0.18956680764137354:0.58144256223326196] [0.080020415585853807:0.41445169263726239] [0.057187706412180163:0.34822613365145488] [0.066378864389340875:0.30718631717076628] [0.094838377495978413:0.43081694183451374] [0.072409694886416687:0.36303930972426807] [0.33039647447427173:1.0046840936910035] [0.2414646128355788:1.0039089649016331] [0.20490966625792828:1.0640203412983473] [0.31451982606256168:1.1603559113673423] [0.14325300824412676:0.4792788401717416] [0.080020415585853807:0.41445169263726239] [0.075502754221688451:0.67105937772978208] [0.19204840067659845:1.5428234040901094] [0.45832726356428888:0.68279877932701238] [0.39923656441942368:0.69179490389392173] [0.45832726356428893:0.68279877932701249] [0.46199433829407593:0.87173207152145793] [0.44826048212030395:1.3957329385333979] none none [0.5832203611902288:1.5116155154241397] [0.4681080490384516:1.3914611893630044] [0.13619233350244808:2.2145361585987571] [0.46983785004360384:3.1786238629682328] [0.59796930336253751:0.60705739575759998] [0.62631354950793039:0.63551500510003045] [0.046779371368190895:0.31120347724026798] [0.046779371368190881:0.32150936847184219] [-2.4239658180719084:-0.2397625949688818] [-1.2113250574658552:-0.0013020871620504503] [-0.88578938243775551:0.23968973125221119] [-0.66653242990701778:0.65623375872267442] [-1.4239208838645714:-0.030331318484047388] [-1.099506884097009:0.10350351000400859] [-2.3579214543955351:-0.51187043177775682] [-2.3729962205175821:0.27452383828458926] [-2.5085055747496514:0.3246167572297679] [-3.1026091797688662:-0.66914248458761172] [-1.7065773166658376:-0.033231919479185787] [-1.2113250574658552:-0.0013020871620504503] [-1.5495004051919095:0.014884616889865913] [-0.81277111773767963:0.12792240620506232] [-1.1838001966734424:-0.88700380837726078] [-1.1619609351829423:-0.56984085065171719] [-1.1838001966734426:-0.88700380837726089] [-3.4613583870810283:-1.2954245677217699] [-3.4849710250243331:-0.86383580786589109] none none [-7.9630984055758489:-1.4308358279424271] [-3.8438745751326802:-1.0819026453925606] [-0.63852688328831009:0.13602364416244112] [-1.8419530278184482:-0.64900750142876029] none none [-0.7320508075688773:0.63397459621556163] [-0.73205080756887708:1.793007356604921e-16] [-0.35496998090318327:0.9584046601728331] [-0.7638208760044648:0.56393753189392315] [-0.70793362280964955:0.45059882612330521] [-0.43910359565151436:1.5190562942963894] [-0.67186612454306549:0.56816430864775047] [-0.70986794694295696:0.50811183939895865] [0.99500157734208106:1.5628430328411498] [0.73529784171589763:1.3709627268734097] [0.53788316942003878:1.1630118915129692] [0.51067716638103644:2.3595626429696774] [-0.7902036991514334:0.86194072623829976] [-0.7638208760044648:0.56393753189392315] [-0.70957137176250484:0.46868937762228302] [-0.0031595132309709035:4.550216809073115] [0.89601712114473286:0.94897408998888322] [0.88432498735682452:0.95457321948446816] [0.89601712114473309:0.94897408998888322] [0.88473072648346029:1.4779158095551133] [0.85912410634008862:4.3984256929096865] none none [1.2556989604557287:4.2583562606343293] [0.91112626795440654:4.0983606290813839] [0.10423353769658561:5.4399688874970913] [0.1267453084885376:9.4705456723019097] none none [-0.63397459621556107:0.73205080756887764] [-0.63397459621556118:0.73205080756887742] [-1.2913075137043701:2.8932666547597785] [-0.40015616491892203:1.2861843767183323] [-1.0596590987947743:0.90571311337259996] [-1.0103400025762332:0.50701073045595535] [-0.21838550604014451:1.6610068258542425] [-0.50306293033510086:1.2849311797692295] [-2.2283323741968681:3.2828041152884722] [-1.4887216166455541:2.6787301411085296] [-1.374202838224285:2.6010435210408516] [-3.9018433987994561:3.6132863461499025] [-0.95809306374978209:1.7074316521187765] [-0.40015616491892203:1.2861843767183323] [-0.62095103126448381:1.8279368028991856] [-4.6788985409710708:3.8989528600433663] [-1.6766045525785649:1.9345980873727036] [-1.4515870616734001:2.0388206157077207] [-1.6766045525785649:1.934598087372704] [-2.713384164979554:4.9392741966361413] [-5.0458434259665808:4.4756586181213462] none none [-8.8063831875673948:8.927277164177946] [-4.7179497105854793:4.3310883697975981] [-5.7994567041042187:5.9290919966808175] [-10.233979944150898:10.040021556071668] [-1:1] [-0.99999999999999978:0.99999999999999978] [-1:0.73205080756887764] [-0.99999999999999989:1] [-1.0187747812109305:1.3428826576174318] [-0.22185814333758169:0.3683699745276367] [-0.065559612287029556:0.16652932015852195] [-0.13475359777651619:0.086272188650840076] [-0.45052546148767625:0.41971250396222015] [-0.26782746623497777:0.19419135149332911] [-1.3351617663768061:1.9945442451246356] [-1.3069143358747171:1.6131663562584717] [-0.88765159350007605:1.0150429649850734] [-1.7403646554219658:3.6090122141153698] [-0.57435692354332757:0.6120157998831155] [-0.22185814333758169:0.3683699745276367] [-0.74164995385055854:0.95332234970738594] [-1.2240822755821656:3.3369620551078945] [-1.1143982587010166:1.3790876584603855] [-1.1201173328751339:1.291855947525123] [-1.1143982587010166:1.3790876584603855] [-1.4892573324029543:2.2975103962961687] [-2.6618775564589763:3.0463112198596347] none none [-1.5110535599473964:3.3982514974923008] [-2.7628923822016396:5.641598508909949] [-3.7353360092373178:4.2952544017244545] [-5.0904897588405049:7.6806381846139917] none none [-0.3660254037844386:0.10717967697244901] [-0.36602540378443854:0.36602540378443882]
tree_sizes=692 605 607 606 604 606 609 605 605 609 607 702 608 609 610 609 609 604 608

Tree=0
num_leaves=6
num_cat=0
split_feature=162 166 66 151 15
split_gain=0.000486256 0.000367683 0.000317734 0.000297922 8.57821e-05
threshold=-0.13923904127995915 0.98059755786775338 0.54851695897352548 0.81129080386248587 -0.19025292672713728
decision_type=2 2 2 2 2
left_child=2 3 4 -2 -1
right_child=1 -3 -4 -5 -6
leaf_value=0.00021718295203534195 5.9638321809788148e-05 0.00021691536283249276 0.00038804164308892336 -0.00018126975640201507 7.0740059234208972e-05
leaf_weight=20 33 20 20 21 20
leaf_count=20 33 20 20 21 20
internal_value=0.000119545 3.37798e-05 0.000225322 -3.40482e-05 0.000143962
internal_weight=134 74 60 54 40
internal_count=134 74 60 54 40
is_linear=0
shrinkage=1


Tree=1
num_leaves=5
num_cat=0
split_feature=198 151 53 189
split_gain=0.000500435 0.000310746 0.000194223 0.000109649
threshold=0.26142646075182535 0.81129080386248587 0.41928375940999058 0.10542430837346257
decision_type=2 2 2 2
left_child=1 3 -2 -1
right_child=2 -3 -4 -5
leaf_value=3.8550211401242352e-05 3.3591854622096037e-05 -0.00023668642011629842 0.00023131591720891226 -9.6200083666749737e-05
leaf_weight=36 27 22 23 26
leaf_count=36 27 22 23 26
internal_value=-6.95893e-07 -7.5244e-05 0.000124545 -1.7958e-05
internal_weight=134 84 50 62
internal_count=134 84 50 62
is_linear=0
shrinkage=0.05


Tree=2
num_leaves=5
num_cat=0
split_feature=198 151 184 66
split_gain=0.000451642 0.000280448 0.000198955 9.35005e-05
threshold=0.26142646075182535 0.81129080386248587 0.016890992521906543 0.43504818869127615
decision_type=2 2 2 2
left_child=1 3 -2 -1
right_child=2 -3 -4 -5
leaf_value=-8.0475603075077145e-05 2.2492093348074168e-05 -0.00022485210297004828 0.0002221287288800037 4.2391975102873407e-05
leaf_weight=30 26 22 24 32
leaf_count=30 26 22 24 32
internal_value=-6.61099e-07 -7.14818e-05 0.000118318 -1.70601e-05
internal_weight=134 84 50 62
internal_count=134 84 50 62
is_linear=0
shrinkage=0.05


Tree=3
num_leaves=5
num_cat=0
split_feature=162 166 75 21
split_gain=0.000397251 0.000319607 0.000286035 0.000267755
threshold=-0.13923904127995915 0.98059755786775338 0.70292409114429943 0.10022666802892614
decision_type=2 2 2 2
left_child=3 2 -2 -1
right_child=1 -3 -4 -5
leaf_value=5.7104509245878689e-06 -0.00028017192363966552 9.259602738893592e-05 -4.5970129076522428e-05 0.00021995528961997482
leaf_weight=35 22 20 32 25
leaf_count=35 22 20 32 25
internal_value=-6.28044e-07 -7.81474e-05 -0.000141386 9.49791e-05
internal_weight=134 74 54 60
internal_count=134 74 54 60
is_linear=0
shrinkage=0.05


Tree=4
num_leaves=5
num_cat=0
split_feature=198 151 13 189
split_gain=0.000390523 0.000241402 0.000175916 9.36279e-05
threshold=0.26142646075182535 0.81129080386248587 0.28836545315561984 0.10542430837346257
decision_type=2 2 2 2
left_child=1 3 -2 -1
right_child=2 -3 -4 -5
leaf_value=3.625702007007527e-05 3.3463329940180606e-05 -0.00020874484310876473 0.00022490291152962527 -8.8260547020651702e-05
leaf_weight=36 30 22 20 26
leaf_count=36 30 22 20 26
internal_value=-5.96641e-07 -6.64513e-05 0.000110039 -1.596e-05
internal_weight=134 84 50 62
internal_count=134 84 50 62
is_linear=0
shrinkage=0.05


Tree=5
num_leaves=5
num_cat=0
split_feature=155 155 64 155
split_gain=0.000429402 0.000271034 0.000175851 5.46813e-05
threshold=0.11250507703162867 0.92236808813728832 0.67262851727593298 0.55490773866346588
decision_type=2 2 2 2
left_child=-1 2 3 -2
right_child=1 -3 -4 -5
leaf_value=-0.00019500463058648166 0.00013052702137350064 0.00020153975323773923 -7.3625432862493598e-05 2.4690187386183355e-05
leaf_weight=20 23 25 34 26
leaf_count=20 23 25 34 26
internal_value=1.78063e-05 5.72157e-05 1.37446e-05 7.43687e-05
internal_weight=128 108 83 49
internal_count=128 108 83 49
is_linear=0
shrinkage=0.05


Tree=6
num_leaves=5
num_cat=0
split_feature=51 51 196 26
split_gain=0.000410797 0.000460302 0.000157506 9.28541e-05
threshold=-0.096273577883234387 -0.065578537743180371 0.32723874316293405 -1.0000000180025095e-35
decision_type=2 2 2 2
left_child=-1 -2 3 -3
right_child=1 2 -4 -5
leaf_value=0.0001720614684472821 -0.00023559768130574163 -8.8332653658220627e-06 -8.7250793744301927e-05 0.00012733679503716918
leaf_weight=32 22 21 22 31
leaf_count=32 22 21 22 31
internal_value=1.6916e-05 -3.47992e-05 2.48976e-05 7.2345e-05
internal_weight=128 96 74 52
internal_count=128 96 74 52
is_linear=0
shrinkage=0.05


Tree=7
num_leaves=5
num_cat=0
split_feature=186 181 189 189
split_gain=0.000388323 0.0001998 0.00010583 8.57238e-05
threshold=0.077357758229177967 -0.22928791297061724 0.32880551459756674 0.011399045578279589
decision_type=2 2 2 2
left_child=1 -1 3 -3
right_child=-2 2 -4 -5
leaf_value=0.00019734938858006069 -0.00012589078373691467 8.6364842164108454e-06 -4.5612807398669999e-05 0.00015327636145229918
leaf_weight=23 35 21 29 20
leaf_count=23 35 21 29 20
internal_value=1.60702e-05 6.94963e-05 2.74875e-05 7.91925e-05
internal_weight=128 93 70 41
internal_count=128 93 70 41
is_linear=0
shrinkage=0.05


Tree=8
num_leaves=5
num_cat=0
split_feature=155 155 147 15
split_gain=0.000382108 0.000235523 0.000142861 7.67038e-05
threshold=0.11250507703162867 0.92236808813728832 0.38141503109331204 0.015955836664927728
decision_type=2 2 2 2
left_child=-1 2 -2 -4
right_child=1 -3 3 -5
leaf_value=-0.00018548303420175217 -7.7593713989825054e-05 0.00018698016903363171 0.000137688164395513 1.4286535245927927e-05
leaf_weight=20 29 25 20 34
leaf_count=20 29 25 20 34
internal_value=1.52667e-05 5.24425e-05 1.19191e-05 5.99908e-05
internal_weight=128 108 83 54
internal_count=128 108 83 54
is_linear=0
shrinkage=0.05


Tree=9
num_leaves=5
num_cat=0
split_feature=51 50 22 50
split_gain=0.000350468 0.000481263 0.000117794 9.37933e-05
threshold=-0.096273577883234387 -0.0064735426782338854 -0.19079751843708084 0.025463006252270458
decision_type=2 2 2 2
left_child=-1 -2 -3 -4
right_child=1 2 3 -5
leaf_value=0.00015780453768456939 -0.0002448300577920496 0.00012323332554263868 -9.0361845492304354e-05 4.3843340584620219e-05
leaf_weight=32 21 22 23 30
leaf_count=32 21 22 23 30
internal_value=1.45033e-05 -3.32638e-05 2.59748e-05 -1.43966e-05
internal_weight=128 96 75 53
internal_count=128 96 75 53
is_linear=0
shrinkage=0.05


Tree=10
num_leaves=5
num_cat=0
split_feature=21 0 44 52
split_gain=0.000245505 0.000215893 0.000159421 6.70311e-05
threshold=-0.60353224880541367 -0.1394053883248382 0.13859601967604993 -0.16226654131448678
decision_type=2 2 2 2
left_child=-1 -2 3 -3
right_child=1 2 -4 -5
leaf_value=-0.00017328242915523747 0.00011923799020223669 7.7283778291134894e-05 -0.00014225860804799597 -3.3236533925125566e-05
leaf_weight=22 32 23 24 34
leaf_count=22 32 23 24 34
internal_value=-2.0469e-05 9.28225e-06 -3.41571e-05 1.13594e-05
internal_weight=135 113 81 57
internal_count=135 113 81 57
is_linear=0
shrinkage=0.05


Tree=11
num_leaves=6
num_cat=0
split_feature=21 14 10 10 10
split_gain=0.000221569 0.00019945 0.000180772 0.000133656 5.68823e-05
threshold=-0.60353224880541367 1.0000000180025095e-35 0.24698798053291474 0.24698798053291474 -0.092442783034294346
decision_type=2 2 2 2 2
left_child=-1 2 -2 4 -3
right_child=1 3 -4 -5 -6
leaf_value=-0.00016461830819025636 0.00019063794779040937 -5.7051585394046497e-05 -8.8896777015179398e-07 -0.00015335361912591561 5.9324508627122709e-05
leaf_weight=22 22 21 28 21 21
leaf_count=22 22 21 28 21 21
internal_value=-1.94456e-05 8.81813e-06 8.33829e-05 -5.03602e-05 1.13646e-06
internal_weight=135 113 50 63 42
internal_count=135 113 50 63 42
is_linear=0
shrinkage=0.05


Tree=12
num_leaves=5
num_cat=0
split_feature=75 0 45 52
split_gain=0.000215501 0.000109227 9.67497e-05 4.28961e-05
threshold=0.64811924285375155 -0.1394053883248382 0.048360938753515617 -0.16226654131448678
decision_type=2 2 2 2
left_child=-1 -2 3 -3
right_child=1 2 -4 -5
leaf_value=-0.00016164449718251658 7.7114739076186638e-05 7.1797021830986662e-05 -9.7503792795609561e-05 -2.6054977176196799e-05
leaf_weight=22 39 21 29 24
leaf_count=22 39 21 29 24
internal_value=-1.84733e-05 9.40073e-06 -2.62864e-05 1.96093e-05
internal_weight=135 113 74 45
internal_count=135 113 74 45
is_linear=0
shrinkage=0.05


Tree=13
num_leaves=5
num_cat=0
split_feature=21 14 10 21
split_gain=0.00020043 0.000176895 0.000160235 0.000116811
threshold=-0.60353224880541367 1.0000000180025095e-35 0.24698798053291474 0.34128446832183984
decision_type=2 2 2 2
left_child=-1 2 -2 -3
right_child=1 3 -4 -5
leaf_value=-0.00015562385402021888 0.00018053322458978403 -0.00013318955904348211 2.1351302815933845e-07 7.0093303712872934e-06
leaf_weight=22 22 24 28 39
leaf_count=22 22 24 28 39
internal_value=-1.75496e-05 9.33207e-06 7.95542e-05 -4.63998e-05
internal_weight=135 113 50 63
internal_count=135 113 50 63
is_linear=0
shrinkage=0.05


Tree=14
num_leaves=5
num_cat=0
split_feature=75 10 21 181
split_gain=0.000191594 0.000100916 0.000113515 0.000107525
threshold=0.64811924285375155 0.24698798053291474 0.10022666802892614 -0.066444116821414725
decision_type=2 2 2 2
left_child=-1 2 -2 -3
right_child=1 3 -4 -5
leaf_value=-0.00015166853250279515 -2.2741106658941138e-05 2.3052802957270456e-05 0.00010507327847574886 -0.00013546584964942097
leaf_weight=22 32 23 38 20
leaf_count=22 32 23 38 20
internal_value=-1.66722e-05 9.61032e-06 4.66438e-05 -5.06768e-05
internal_weight=135 113 70 43
internal_count=135 113 70 43
is_linear=0
shrinkage=0.05


Tree=15
num_leaves=5
num_cat=0
split_feature=151 196 168 171
split_gain=0.000305459 0.000161865 0.000155118 5.37018e-05
threshold=1.3117181976464822 -0.60733235935002738 -0.21421501675593033 -0.30901699437494745
decision_type=2 2 2 2
left_child=1 -1 3 -3
right_child=-2 2 -4 -5
leaf_value=0.0001347143604895488 -0.00017246599780351278 0.00011943433790293057 -8.272945911705713e-05 1.2161220833409713e-05
leaf_weight=30 21 20 34 28
leaf_count=30 21 20 34 28
internal_value=2.52665e-06 3.53378e-05 -1.01952e-06 5.68584e-05
internal_weight=133 112 82 48
internal_count=133 112 82 48
is_linear=0
shrinkage=0.05


Tree=16
num_leaves=5
num_cat=0
split_feature=186 22 38 187
split_gain=0.000291689 0.000165368 8.72337e-05 6.07281e-05
threshold=0.077357758229177967 -0.19079751843708084 0.15809978410333922 -0.078996220830334682
decision_type=2 2 2 2
left_child=1 -1 3 -3
right_child=-2 2 -4 -5
leaf_value=0.00012944537779193329 -0.00012395179630188711 9.4124641327653088e-05 -9.0073069295613101e-05 -2.6257828576490283e-05
leaf_weight=37 34 22 20 20
leaf_count=37 34 22 20 20
internal_value=2.40032e-06 4.5794e-05 -4.12703e-06 3.67997e-05
internal_weight=133 99 62 42
internal_count=133 99 62 42
is_linear=0
shrinkage=0.05


Tree=17
num_leaves=5
num_cat=0
split_feature=186 22 10 189
split_gain=0.00026325 0.000149245 7.66756e-05 9.9559e-05
threshold=0.077357758229177967 -0.19079751843708084 0.26465653429921571 0.3043376149134982
decision_type=2 2 2 2
left_child=1 -1 3 -3
right_child=-2 2 -4 -5
leaf_value=0.00012297311007608409 -0.00011775420840850154 0.00011571221242775211 -8.1614238678455535e-05 -4.0163203015080876e-05
leaf_weight=37 34 20 21 21
leaf_count=37 34 20 21 21
internal_value=2.2803e-06 4.35043e-05 -3.92068e-06 3.58736e-05
internal_weight=133 99 62 41
internal_count=133 99 62 41
is_linear=0
shrinkage=0.05


Tree=18
num_leaves=5
num_cat=0
split_feature=151 63 168 80
split_gain=0.000267432 0.000180054 0.000133137 7.09983e-05
threshold=1.3117181976464822 0.11391570585807115 -0.31531054607259812 0.63535678142796082
decision_type=2 2 2 2
left_child=1 -1 3 -3
right_child=-2 2 -4 -5
leaf_value=0.00014267231124124788 -0.00016157206098016885 -1.5327311947740701e-05 -7.6420246073717464e-05 0.00010671669297153131
leaf_weight=28 21 22 36 26
leaf_count=28 21 22 36 26
internal_value=2.16628e-06 3.28672e-05 -3.73447e-06 5.07799e-05
internal_weight=133 112 84 48
internal_count=133 112 84 48
is_linear=0
shrinkage=0.05


end of trees

feature_importances:
Column_10=6
Column_21=6
Column_151=6
Column_155=5
Column_189=5
Column_22=3
Column_51=3
Column_75=3
Column_186=3
Column_198=3
Column_0=2
Column_14=2
Column_15=2
Column_50=2
Column_52=2
Column_66=2
Column_162=2
Column_166=2
Column_168=2
Column_181=2
Column_196=2
Column_13=1
Column_26=1
Column_38=1
Column_44=1
Column_45=1
Column_53=1
Column_63=1
Column_64=1
Column_80=1
Column_147=1
Column_171=1
Column_184=1
Column_187=1

parameters:
[boosting: gbdt]
[objective: regression]
[metric: l2]
[tree_learner: serial]
[device_type: cpu]
[data_sample_strategy: bagging]
[data: ]
[valid: ]
[num_iterations: 200]
[learning_rate: 0.05]
[num_leaves: 31]
[num_threads: -1]
[seed: 0]
[deterministic: 0]
[force_col_wise: 0]
[force_row_wise: 0]
[histogram_pool_size: -1]
[max_depth: -1]
[min_data_in_leaf: 20]
[min_sum_hessian_in_leaf: 0.001]
[bagging_fraction: 0.8]
[pos_bagging_fraction: 1]
[neg_bagging_fraction: 1]
[bagging_freq: 5]
[bagging_seed: 3]
[bagging_by_query: 0]
[feature_fraction: 0.8]
[feature_fraction_bynode: 1]
[feature_fraction_seed: 2]
[extra_trees: 0]
[extra_seed: 6]
[early_stopping_round: 0]
[early_stopping_min_delta: 0]
[first_metric_only: 0]
[max_delta_step: 0]
[lambda_l1: 0]
[lambda_l2: 0]
[linear_lambda: 0]
[min_gain_to_split: 0]
[drop_rate: 0.1]
[max_drop: 50]
[skip_drop: 0.5]
[xgboost_dart_mode: 0]
[uniform_drop: 0]
[drop_seed: 4]
[top_rate: 0.2]
[other_rate: 0.1]
[min_data_per_group: 100]
[max_cat_threshold: 32]
[cat_l2: 10]
[cat_smooth: 10]
[max_cat_to_onehot: 4]
[top_k: 20]
[monotone_constraints: ]
[monotone_constraints_method: basic]
[monotone_penalty: 0]
[feature_contri: ]
[forcedsplits_filename: ]
[refit_decay_rate: 0.9]
[cegb_tradeoff: 1]
[cegb_penalty_split: 0]
[cegb_penalty_feature_lazy: ]
[cegb_penalty_feature_coupled: ]
[path_smooth: 0]
[interaction_constraints: ]
[verbosity: -1]
[saved_feature_importance_type: 0]
[use_quantized_grad: 0]
[num_grad_quant_bins: 4]
[quant_train_renew_leaf: 0]
[stochastic_rounding: 1]
[linear_tree: 0]
[max_bin: 255]
[max_bin_by_feature: ]
[min_data_in_bin: 3]
[bin_construct_sample_cnt: 200000]
[data_random_seed: 1]
[is_enable_sparse: 1]
[enable_bundle: 1]
[use_missing: 1]
[zero_as_missing: 0]
[feature_pre_filter: 1]
[pre_partition: 0]
[two_round: 0]
[header: 0]
[label_column: ]
[weight_column: ]
[group_column: ]
[ignore_column: ]
[categorical_feature: ]
[forcedbins_filename: ]
[precise_float_parser: 0]
[parser_config_file: ]
[objective_seed: 5]
[num_class: 1]
[is_unbalance: 0]
[scale_pos_weight: 1]
[sigmoid: 1]
[boost_from_average: 1]
[reg_sqrt: 0]
[alpha: 0.9]
[fair_c: 1]
[poisson_max_delta_step: 0.7]
[tweedie_variance_power: 1.5]
[lambdarank_truncation_level: 30]
[lambdarank_norm: 1]
[label_gain: ]
[lambdarank_position_bias_regularization: 0]
[eval_at: ]
[multi_error_top_k: 1]
[auc_mu_weights: ]
[num_machines: 1]
[local_listen_port: 12400]
[time_out: 120]
[machine_list_filename: ]
[machines: ]
[gpu_platform_id: -1]
[gpu_device_id: -1]
[gpu_use_dp: 0]
[num_gpu: 1]

end of parameters

pandas_categorical:null
