tree
version=v4
num_class=1
num_tree_per_iteration=1
label_index=0
max_feature_idx=202
objective=regression
feature_names=Column_0 Column_1 Column_2 Column_3 Column_4 Column_5 Column_6 Column_7 Column_8 Column_9 Column_10 Column_11 Column_12 Column_13 Column_14 Column_15 Column_16 Column_17 Column_18 Column_19 Column_20 Column_21 Column_22 Column_23 Column_24 Column_25 Column_26 Column_27 Column_28 Column_29 Column_30 Column_31 Column_32 Column_33 Column_34 Column_35 Column_36 Column_37 Column_38 Column_39 Column_40 Column_41 Column_42 Column_43 Column_44 Column_45 Column_46 Column_47 Column_48 Column_49 Column_50 Column_51 Column_52 Column_53 Column_54 Column_55 Column_56 Column_57 Column_58 Column_59 Column_60 Column_61 Column_62 Column_63 Column_64 Column_65 Column_66 Column_67 Column_68 Column_69 Column_70 Column_71 Column_72 Column_73 Column_74 Column_75 Column_76 Column_77 Column_78 Column_79 Column_80 Column_81 Column_82 Column_83 Column_84 Column_85 Column_86 Column_87 Column_88 Column_89 Column_90 Column_91 Column_92 Column_93 Column_94 Column_95 Column_96 Column_97 Column_98 Column_99 Column_100 Column_101 Column_102 Column_103 Column_104 Column_105 Column_106 Column_107 Column_108 Column_109 Column_110 Column_111 Column_112 Column_113 Column_114 Column_115 Column_116 Column_117 Column_118 Column_119 Column_120 Column_121 Column_122 Column_123 Column_124 Column_125 Column_126 Column_127 Column_128 Column_129 Column_130 Column_131 Column_132 Column_133 Column_134 Column_135 Column_136 Column_137 Column_138 Column_139 Column_140 Column_141 Column_142 Column_143 Column_144 Column_145 Column_146 Column_147 Column_148 Column_149 Column_150 Column_151 Column_152 Column_153 Column_154 Column_155 Column_156 Column_157 Column_158 Column_159 Column_160 Column_161 Column_162 Column_163 Column_164 Column_165 Column_166 Column_167 Column_168 Column_169 Column_170 Column_171 Column_172 Column_173 Column_174 Column_175 Column_176 Column_177 Column_178 Column_179 Column_180 Column_181 Column_182 Column_183 Column_184 Column_185 Column_186 Column_187 Column_188 Column_189 Column_190 Column_191 Column_192 Column_193 Column_194 Column_195 Column_196 Column_197 Column_198 Column_199 Column_200 Column_201 Column_202
feature_infos=[-0.96441912490766146:0.45510735247182643] [-0.88913856432777361:0.33375027912360494] [-0.83732283143024:0.3155866584975256] [-0.3329362145496515:1.4119132767863545] [-0.85622142610351049:0.33906975731618588] [-0.8467012220589123:0.33593011785907956] [-1.822901471191861:1.8919248144908072] [-0.65208258826287013:1.9858132898276359] [-0.50951625544630974:1.720217518731961] [-2.9070067281675684:2.7637125942869827] [-0.88983816350422384:0.32783103849887318] [-0.88913856432777361:0.33375027912360494] [-0.91247879128406018:0.3342543976142151] [-1.0778675173755323:3.0430069869306506] [-1.4255629155812128:0.88018716193332136] [-1.2218107341560349:0.8009990888538171] [-1.4255629155812131:0.88018716193332147] [-2.1006125932937252:1.7945844125296717] [-1.7172234609081138:2.6002824722777063] none none [-2.5080787515764049:4.9687232435191495] [-2.6211648088775763:3.2304713570546073] [-1.0732135607103932:2.2275401106695636] [-1.1132376253593577:5.2904426412095029] [-0.80901699437494745:0.80901699437494734] [-0.99999999999999978:0.61803398874989501] [-0.7320508075688773:0.73205080756887764] [-0.73205080756887708:0.63397459621556118] [-1.3256878504682237:0.22079504311130621] [-1.1184454142445388:0.26046760760405679] [-0.85807477796484588:0.29585355652466705] [-0.2896852756168074:0.86698504039132573] [-1.2510607056823821:0.23547181523510721] [-1.0620217556818266:0.27670885882734375] [-0.38403787425228947:0.68192614571396071] [-0.30892117319997303:0.95425754162385312] [-0.41238802401243135:0.95831713811069852] [-0.52061283369031897:0.64543322231281997] [-1.3735272813892365:0.23770511885702728] [-1.1184454142445388:0.26046760760405679] [-0.90435735454695876:0.25267825590577031] [-0.23638056259310281:1.2316760463490606] [-0.25756650085130428:0.11723922043702507] [-0.21514204772919499:0.14377787797491035] [-0.25756650085130434:0.11723922043702505] [-0.25270425982879224:0.40553178062835588] [-0.18960654748177605:0.7307798178642948] none none [-0.00768828547206567:0.34323865047004709] [-0.18501938712339994:0.5282670663386575] [-0.27761700320034205:0.95116789326151929] [-0.2602963399129144:1.1562583221913985] [-0.021816949906249123:0.035300566479164915] [-0.32002710206251911:-0.24942596910418938] [-0.66993587371177699:0.66830127018922214] [-0.6683012701892217:0.439871747423554] [0.078611736144324082:0.43588815310836732] [0.036862665056102244:0.33504286784100268] [0.016569431037418769:0.23467760423959336] [0.038440607937015071:0.31391495132166808] [0.044954014333905848:0.37397629699728274] [0.034975682910020983:0.30015260566201052] [0.47210483329458114:1.0017284531115394] [0.20844791392327724:0.78652225882855842] [0.16731120865921248:0.72021636846796799] [0.51990435146444225:1.6359638020197396] [0.05625682799484602:0.4956336950959343] [0.036862665056102244:0.33504286784100268] [0.030481033785805665:0.28566886329312208] [0.36241779568669286:0.9836567378425205] [0.54364053899812614:0.66249671664103826] [0.45580899843371808:0.60695166275666235] [0.54364053899812614:0.66249671664103837] [0.5763574563091497:0.8184192080204763] [0.46828493918492747:1.2316053511763527] none none [0.67983306970835311:1.2425177752222023] [0.48592277570872394:1.2585066246618095] [0.30249751757727777:0.9106198851662527] [0.38817875224481724:1.5897279258271877] [0.59796930336253751:0.60705739575759998] [0.62631354950793039:0.63551500510003045] [0.046779371368190895:0.31120347724026798] [0.046779371368190881:0.32150936847184219] [-1.5899119093890897:0.071783583889862015] [-1.1994685629388906:0.1917647189450096] [-0.91644311176126092:0.24806700629524153] [-0.3329362145496515:0.37381384052381234] [-1.3898305474411699:0.16323212506003362] [-1.1330745855848618:0.22378732890356087] [-2.1409594592610617:-0.59402411883536799] [-1.0725339982691908:0.043543557124100601] [-0.99148401319933033:0.29269610384469585] [-2.9070067281675684:-0.46947097998029164] [-1.518558459955506:0.12003344260766249] [-1.1994685629388906:0.1917647189450096] [-0.94218912223495055:0.15156752650163371] [-1.0778675173755323:0.20340990187186431] [-1.4255629155812128:-1.1743677510595536] [-1.2218107341560349:-0.81546384440473085] [-1.4255629155812131:-1.1743677510595536] [-2.1006125932937252:-0.58326482484102715] [-1.7172234609081138:-0.9491221067600033] none none [-2.571310577342242:-1.3749450127044895] [-2.6211648088775763:-1.2657913890314059] [-1.0732135607103932:-0.21086969636218791] [-1.1132376253593577:-0.44442483537731481] none none [-0.7320508075688773:0.63397459621556163] [-0.73205080756887708:1.793007356604921e-16] [-0.74808692486001249:0.45510735247182643] [-0.88913856432777361:0.33375027912360494] [-0.74619033043322047:0.3155866584975256] [-0.21286958795341213:1.4119132767863545] [-0.85622142610351049:0.33906975731618588] [-0.8467012220589123:0.33593011785907956] [0.96340341114578165:1.8919248144908072] [0.27860648476426647:1.9858132898276359] [0.20610799027831905:1.720217518731961] [0.84391505413040402:2.7637125942869827] [-0.80849043328463099:0.32783103849887318] [-0.88913856432777361:0.33375027912360494] [-0.82383331758566514:0.3342543976142151] [0.61622941496857242:3.0430069869306506] [0.74267936058990702:0.88018716193332136] [0.56880613378178813:0.8009990888538171] [0.74267936058990724:0.88018716193332147] [1.0717200942007934:2.003210517316512] [1.268329276788805:2.6002824722777063] none none [1.6623391998726014:4.9687232435191495] [1.0849739599459907:3.4156590106966433] [0.75789154212664489:2.2275401106695636] [0.53042506392255206:5.2904426412095029] none none [-0.63397459621556107:0.73205080756887764] [-0.63397459621556118:0.73205080756887742] [-0.21658542871313391:1.4597538737243043] [-0.033284585046194581:1.0368088634917871] [-0.16677426988094068:0.74619033043322047] [-0.29153390100782967:1.0380994362625422] [-0.066948379198823432:1.1399556017648598] [0.003375319549586836:0.90936310188201031] [-2.0921255179936327:3.1219412138991656] [-1.6046597976401726:2.448387659364367] [-1.2685757067118988:2.1920907946799111] [-3.8098356383262901:2.2427426713799998] [-0.14859743787983742:1.4833216240495188] [-0.033284585046194581:1.0368088634917871] [-0.11804209561475498:0.83586795818492121] [-3.1108610975069841:3.0098379074814043] [-1.9914681501452698:1.7982977871597763] [-1.4942513206841794:1.7882216174698213] [-1.9914681501452702:1.7982977871597767] [-2.8099940131643653:2.8526315112424983] [-3.1131798687032717:3.2780904990866491] none none [-4.7997547479271718:5.36969702008696] [-3.8425259655974058:2.4883121417125418] [-3.2788864053793616:2.3166744808166553] [-5.9039295839807675:4.2365438754114368] [-1:1] [-0.99999999999999978:0.99999999999999978] [-1:0.73205080756887764] [-0.99999999999999989:1] [-0.2849328944036465:0.45119294675754923] [-0.064599412903792092:0.15515416875772614] [-0.0049027239965942493:0.096795937082825301] [-0.0010875358302942506:0.099024540762273183] [-0.10572992004157528:0.25705227078088816] [-0.041723192837324868:0.1645188631338339] [-1.8102748321847408:0.96497736236607823] [-0.76385798411193717:0.85504983398890433] [-0.61086857294796815:0.61204697392515595] [-2.2109001947570923:2.1727129186855909] [-0.15973677629814553:0.43000175530726664] [-0.064599412903792092:0.15515416875772614] [-0.12046007862037211:0.2443374565146671] [-0.7407985400992636:1.6404556993365302] [-1.5724320878942446:1.286905992677811] [-1.5035897980395494:1.1133914396235709] [-1.5724320878942448:1.2869059926778115] [-1.429637395341969:1.2218322039582787] [-2.2596102195173331:1.7175086077597879] none none [-1.5978654372751127:1.8152170736077435] [-2.8214614063183188:2.4627093509865814] [-1.1416692958832571:1.5596977421305296] [-2.2473163402570489:2.9221950770707177] none none [-0.3660254037844386:0.10717967697244901] [-0.36602540378443854:0.36602540378443882]
tree_sizes=689 613 704 697 696 608 613 516 606 702 609 699 700 611

Tree=0
num_leaves=6
num_cat=0
split_feature=13 18 24 158 168
split_gain=0.000251591 0.000144392 0.000146529 0.000171827 7.73876e-05
threshold=1.0789208629942648 -0.46827597739774307 -0.11055761691314143 -0.81492758765478179 0.13860910966503806
decision_type=2 2 2 2 2
left_child=1 -1 3 -3 -4
right_child=-2 2 4 -5 -6
leaf_value=0.00038353794757175352 0.00046683421877043494 0.00020990803938505676 0.00012926726778355734 0.00040986124969838954 0.00025903231277135837
leaf_weight=24 20 21 27 22 20
leaf_count=24 20 21 27 22 20
internal_value=0.000303265 0.000274568 0.00024551 0.00031221 0.000184486
internal_weight=134 114 90 43 47
internal_count=134 114 90 43 47
is_linear=0
shrinkage=1


Tree=1
num_leaves=5
num_cat=0
split_feature=198 167 22 22
split_gain=0.000219165 0.000117735 0.000131329 6.90534e-05
threshold=0.42609461436340113 0.80202950145940688 -0.062638665134181259 -0.52003294883956674
decision_type=2 2 2 2
left_child=1 2 3 -1
right_child=-2 -3 -4 -5
leaf_value=-1.0340414276773421e-05 0.00011300101919161912 -0.00013954544677593125 5.9529340443467456e-05 -0.00013297828670395326
leaf_weight=24 29 24 35 22
leaf_count=24 29 24 35 22
internal_value=-8.67333e-06 -4.22786e-05 -1.34588e-05 -6.89933e-05
internal_weight=134 105 81 46
internal_count=134 105 81 46
is_linear=0
shrinkage=0.05


Tree=2
num_leaves=6
num_cat=0
split_feature=198 198 24 23 195
split_gain=0.000197797 0.000108862 0.000188053 0.000187286 8.92916e-05
threshold=0.42609461436340113 -1.0821580261674801 -0.21165418978128606 -0.39262302994993403 0.098817836853179214
decision_type=2 2 2 2 2
left_child=1 -1 3 -3 -4
right_child=-2 2 4 -5 -6
leaf_value=-0.00014512070301861968 0.00010735096687406849 -4.4778828596463426e-05 -1.0291511162428098e-05 0.00017160404153401034 -0.00015146924573249029
leaf_weight=20 29 20 21 20 24
leaf_count=20 29 20 21 20 24
internal_value=-8.23967e-06 -4.01647e-05 -1.54692e-05 6.34126e-05 -8.55863e-05
internal_weight=134 105 85 40 45
internal_count=134 105 85 40 45
is_linear=0
shrinkage=0.05


Tree=3
num_leaves=6
num_cat=0
split_feature=13 180 24 22 17
split_gain=0.000211104 0.000123889 0.000113285 0.000123026 0.000121863
threshold=1.0789208629942648 -0.45810187636571903 -0.11055761691314143 0.44642518469083636 0.16153844566760237
decision_type=2 2 2 2 2
left_child=1 -1 4 -4 -3
right_child=-2 2 3 -5 -6
leaf_value=7.2476113961205234e-05 0.0001420036907074973 -8.7030114677459516e-05 -4.426993893705205e-05 -0.00020788385249034038 7.757261381535184e-05
leaf_weight=22 20 22 27 20 23
leaf_count=22 20 22 27 20 23
internal_value=-7.82768e-06 -3.41139e-05 -5.96028e-05 -0.000113893 -2.89983e-06
internal_weight=134 114 92 47 45
internal_count=134 114 92 47 45
is_linear=0
shrinkage=0.05


Tree=4
num_leaves=6
num_cat=0
split_feature=13 180 28 7 180
split_gain=0.000190521 0.00011181 0.000107396 0.00021468 5.17092e-05
threshold=1.0789208629942648 -0.45810187636571903 -0.68301270189221908 0.23192186257635608 0.11098529885893517
decision_type=2 2 2 2 2
left_child=1 -1 -3 4 -4
right_child=-2 2 3 -5 -6
leaf_value=6.8852306139888245e-05 0.00013490350800566376 4.5876941658207219e-05 -7.0940711990867084e-05 -0.00019993430368441087 3.5183873048729514e-05
leaf_weight=22 20 20 24 26 22
leaf_count=22 20 20 24 26 22
internal_value=-7.4363e-06 -3.24082e-05 -5.66227e-05 -8.50948e-05 -2.01855e-05
internal_weight=134 114 92 72 46
internal_count=134 114 92 72 46
is_linear=0
shrinkage=0.05


Tree=5
num_leaves=5
num_cat=0
split_feature=191 174 182 82
split_gain=0.00019685 0.000205532 0.000216019 0.000104327
threshold=0.50632930112035679 -0.064034636886576027 -0.010838563919230755 1.4269418450159768
decision_type=2 2 2 2
left_child=1 -1 -3 -4
right_child=-2 2 3 -5
leaf_value=0.00012043565158516383 0.000153425623126247 -0.00018875865091104061 -5.2065920042239033e-05 8.1786410676916918e-05
leaf_weight=24 23 20 37 24
leaf_count=24 23 20 37 24
internal_value=2.09415e-05 -8.07888e-06 -4.61573e-05 5.97292e-07
internal_weight=128 105 81 61
internal_count=128 105 81 61
is_linear=0
shrinkage=0.05


Tree=6
num_leaves=5
num_cat=0
split_feature=191 174 182 24
split_gain=0.000177658 0.000185493 0.000194957 0.000124554
threshold=0.50632930112035679 -0.064034636886576027 -0.010838563919230755 -0.11055761691314143
decision_type=2 2 2 2
left_child=1 -1 -3 -4
right_child=-2 2 3 -5
leaf_value=0.00011441386697441658 0.00014575434533585591 -0.00017932071888935753 7.5619023708237246e-05 -6.7448083450472046e-05
leaf_weight=24 23 20 29 32
leaf_count=24 23 20 29 32
internal_value=1.98944e-05 -7.67494e-06 -4.38494e-05 5.67427e-07
internal_weight=128 105 81 61
internal_count=128 105 81 61
is_linear=0
shrinkage=0.05


Tree=7
num_leaves=4
num_cat=0
split_feature=23 183 12
split_gain=0.000133319 0.000201065 0.000116308
threshold=-0.40912901038677313 0.22844123746568759 -0.06140881150619918
decision_type=2 2 2
left_child=-1 2 -2
right_child=1 -3 -4
leaf_value=-6.2674799725452124e-05 -8.1206287097757021e-05 0.00014094076680988576 6.4237692791274884e-05
leaf_weight=36 28 37 27
leaf_count=36 28 37 27
internal_value=1.88997e-05 5.08201e-05 -9.80652e-06
internal_weight=128 92 55
internal_count=128 92 55
is_linear=0
shrinkage=0.05


Tree=8
num_leaves=5
num_cat=0
split_feature=191 174 42 72
split_gain=0.000152924 0.000172766 0.00015312 0.000147788
threshold=0.50632930112035679 -0.064034636886576027 1.0265903782624617 0.58117283083842219
decision_type=2 2 2 2
left_child=1 -1 3 -3
right_child=-2 2 -4 -5
leaf_value=0.00011020238315116634 0.00013472511567195634 -2.5622717042167026e-05 7.3665893536859338e-05 -0.00019014444052507836
leaf_weight=24 23 39 21 21
leaf_count=24 23 39 21 21
internal_value=1.79547e-05 -7.6236e-06 -4.2535e-05 -8.32053e-05
internal_weight=128 105 81 60
internal_count=128 105 81 60
is_linear=0
shrinkage=0.05


Tree=9
num_leaves=6
num_cat=0
split_feature=191 174 60 72 166
split_gain=0.000138013 0.000155921 0.000134072 0.000136946 5.66334e-05
threshold=0.50632930112035679 -0.064034636886576027 0.20086463895589521 0.58117283083842219 -0.27369707214180855
decision_type=2 2 2 2 2
left_child=1 -1 3 4 -3
right_child=-2 2 -4 -5 -6
leaf_value=0.00010469226373667577 0.00012798886053370435 3.6534771352307873e-05 7.1935015512281097e-05 -0.00018063721872749739 -8.2454141520429416e-05
leaf_weight=24 23 20 20 21 20
leaf_count=24 23 20 20 21 20
internal_value=1.70569e-05 -7.24242e-06 -4.04083e-05 -7.72421e-05 -2.29597e-05
internal_weight=128 105 81 61 40
internal_count=128 105 81 61 40
is_linear=0
shrinkage=0.05


Tree=10
num_leaves=5
num_cat=0
split_feature=159 10 4 162
split_gain=0.00016584 0.000191582 7.11511e-05 0.000100273
threshold=0.43826627824073067 -0.22203709037429512 0.22866581591927607 -0.023843070858460155
decision_type=2 2 2 2
left_child=1 -1 3 -3
right_child=-2 2 -4 -5
leaf_value=0.00015848575849304326 -0.00011074331260942928 7.0161043258849527e-05 -7.8785961522953596e-05 -7.0183043389988599e-05
leaf_weight=20 32 35 28 20
leaf_count=20 32 35 28 20
internal_value=-1.13193e-05 1.95697e-05 -1.3904e-05 1.91268e-05
internal_weight=135 103 83 55
internal_count=135 103 83 55
is_linear=0
shrinkage=0.05


Tree=11
num_leaves=6
num_cat=0
split_feature=196 182 10 188 57
split_gain=0.00017177 0.000135446 6.34006e-05 9.98977e-05 3.70013e-05
threshold=0.93545767106446354 -0.18264326444080248 0.22119774252309701 0.11673347842858174 -0.098584391824351456
decision_type=2 2 2 2 2
left_child=1 -1 3 4 -3
right_child=-2 2 -4 -5 -6
leaf_value=0.00011572374668412523 -0.00014599487685245551 1.1987057187070604e-05 -7.993597785200648e-05 9.4672564338669997e-05 -8.419159959885293e-05
leaf_weight=25 20 20 27 23 20
leaf_count=25 20 20 27 23 20
internal_value=-1.07533e-05 1.2767e-05 -1.58321e-05 1.16409e-05 -3.61023e-05
internal_weight=135 115 90 63 40
internal_count=135 115 90 63 40
is_linear=0
shrinkage=0.05


Tree=12
num_leaves=6
num_cat=0
split_feature=196 182 189 75 17
split_gain=0.000155022 0.000122374 8.44369e-05 4.5745e-05 2.60251e-05
threshold=0.93545767106446354 -0.18831789060618723 0.24007977062416622 0.69394534358104099 -0.17851200476813869
decision_type=2 2 2 2 2
left_child=1 -1 3 4 -3
right_child=-2 2 -4 -5 -6
leaf_value=0.00011528500568680972 -0.00013869513766621823 -3.3159161813230077e-05 6.9306009327587886e-05 1.1039831336417523e-05 -0.00011097709516021001
leaf_weight=23 20 21 23 26 22
leaf_count=23 20 21 23 26 22
internal_value=-1.02156e-05 1.21286e-05 -1.36605e-05 -4.1316e-05 -7.2973e-05
internal_weight=135 115 92 69 43
internal_count=135 115 92 69 43
is_linear=0
shrinkage=0.05


Tree=13
num_leaves=5
num_cat=0
split_feature=159 10 196 24
split_gain=0.000140809 0.00016565 5.84266e-05 6.60175e-05
threshold=0.43826627824073067 -0.22203709037429512 -0.54122140768193538 -0.11055761691314143
decision_type=2 2 2 2
left_child=1 -1 -3 -4
right_child=-2 2 3 -5
leaf_value=0.00014793057081988084 -0.00010131898571899001 4.9745450479139647e-05 1.8055807525412931e-05 -8.9980423194168499e-05
leaf_weight=20 32 26 26 31
leaf_count=20 32 26 26 31
internal_value=-9.70486e-06 1.87578e-05 -1.23682e-05 -4.07007e-05
internal_weight=135 103 83 57
internal_count=135 103 83 57
is_linear=0
shrinkage=0.05


end of trees

feature_importances:
Column_24=5
Column_174=4
Column_182=4
Column_191=4
Column_10=3
Column_13=3
Column_22=3
Column_180=3
Column_196=3
Column_198=3
Column_17=2
Column_23=2
Column_72=2
Column_159=2
Column_4=1
Column_7=1
Column_12=1
Column_18=1
Column_28=1
Column_42=1
Column_57=1
Column_60=1
Column_75=1
Column_82=1
Column_158=1
Column_162=1
Column_166=1
Column_167=1
Column_168=1
Column_183=1
Column_188=1
Column_189=1
Column_195=1

parameters:
[boosting: gbdt]
[objective: regression]
[metric: l2]
[tree_learner: serial]
[device_type: cpu]
[data_sample_strategy: bagging]
[data: ]
[valid: ]
[num_iterations: 200]
[learning_rate: 0.05]
[num_leaves: 31]
[num_threads: -1]
[seed: 0]
[deterministic: 0]
[force_col_wise: 0]
[force_row_wise: 0]
[histogram_pool_size: -1]
[max_depth: -1]
[min_data_in_leaf: 20]
[min_sum_hessian_in_leaf: 0.001]
[bagging_fraction: 0.8]
[pos_bagging_fraction: 1]
[neg_bagging_fraction: 1]
[bagging_freq: 5]
[bagging_seed: 3]
[bagging_by_query: 0]
[feature_fraction: 0.8]
[feature_fraction_bynode: 1]
[feature_fraction_seed: 2]
[extra_trees: 0]
[extra_seed: 6]
[early_stopping_round: 0]
[early_stopping_min_delta: 0]
[first_metric_only: 0]
[max_delta_step: 0]
[lambda_l1: 0]
[lambda_l2: 0]
[linear_lambda: 0]
[min_gain_to_split: 0]
[drop_rate: 0.1]
[max_drop: 50]
[skip_drop: 0.5]
[xgboost_dart_mode: 0]
[uniform_drop: 0]
[drop_seed: 4]
[top_rate: 0.2]
[other_rate: 0.1]
[min_data_per_group: 100]
[max_cat_threshold: 32]
[cat_l2: 10]
[cat_smooth: 10]
[max_cat_to_onehot: 4]
[top_k: 20]
[monotone_constraints: ]
[monotone_constraints_method: basic]
[monotone_penalty: 0]
[feature_contri: ]
[forcedsplits_filename: ]
[refit_decay_rate: 0.9]
[cegb_tradeoff: 1]
[cegb_penalty_split: 0]
[cegb_penalty_feature_lazy: ]
[cegb_penalty_feature_coupled: ]
[path_smooth: 0]
[interaction_constraints: ]
[verbosity: -1]
[saved_feature_importance_type: 0]
[use_quantized_grad: 0]
[num_grad_quant_bins: 4]
[quant_train_renew_leaf: 0]
[stochastic_rounding: 1]
[linear_tree: 0]
[max_bin: 255]
[max_bin_by_feature: ]
[min_data_in_bin: 3]
[bin_construct_sample_cnt: 200000]
[data_random_seed: 1]
[is_enable_sparse: 1]
[enable_bundle: 1]
[use_missing: 1]
[zero_as_missing: 0]
[feature_pre_filter: 1]
[pre_partition: 0]
[two_round: 0]
[header: 0]
[label_column: ]
[weight_column: ]
[group_column: ]
[ignore_column: ]
[categorical_feature: ]
[forcedbins_filename: ]
[precise_float_parser: 0]
[parser_config_file: ]
[objective_seed: 5]
[num_class: 1]
[is_unbalance: 0]
[scale_pos_weight: 1]
[sigmoid: 1]
[boost_from_average: 1]
[reg_sqrt: 0]
[alpha: 0.9]
[fair_c: 1]
[poisson_max_delta_step: 0.7]
[tweedie_variance_power: 1.5]
[lambdarank_truncation_level: 30]
[lambdarank_norm: 1]
[label_gain: ]
[lambdarank_position_bias_regularization: 0]
[eval_at: ]
[multi_error_top_k: 1]
[auc_mu_weights: ]
[num_machines: 1]
[local_listen_port: 12400]
[time_out: 120]
[machine_list_filename: ]
[machines: ]
[gpu_platform_id: -1]
[gpu_device_id: -1]
[gpu_use_dp: 0]
[num_gpu: 1]

end of parameters

pandas_categorical:null
