tree
version=v4
num_class=1
num_tree_per_iteration=1
label_index=0
max_feature_idx=202
objective=regression
feature_names=Column_0 Column_1 Column_2 Column_3 Column_4 Column_5 Column_6 Column_7 Column_8 Column_9 Column_10 Column_11 Column_12 Column_13 Column_14 Column_15 Column_16 Column_17 Column_18 Column_19 Column_20 Column_21 Column_22 Column_23 Column_24 Column_25 Column_26 Column_27 Column_28 Column_29 Column_30 Column_31 Column_32 Column_33 Column_34 Column_35 Column_36 Column_37 Column_38 Column_39 Column_40 Column_41 Column_42 Column_43 Column_44 Column_45 Column_46 Column_47 Column_48 Column_49 Column_50 Column_51 Column_52 Column_53 Column_54 Column_55 Column_56 Column_57 Column_58 Column_59 Column_60 Column_61 Column_62 Column_63 Column_64 Column_65 Column_66 Column_67 Column_68 Column_69 Column_70 Column_71 Column_72 Column_73 Column_74 Column_75 Column_76 Column_77 Column_78 Column_79 Column_80 Column_81 Column_82 Column_83 Column_84 Column_85 Column_86 Column_87 Column_88 Column_89 Column_90 Column_91 Column_92 Column_93 Column_94 Column_95 Column_96 Column_97 Column_98 Column_99 Column_100 Column_101 Column_102 Column_103 Column_104 Column_105 Column_106 Column_107 Column_108 Column_109 Column_110 Column_111 Column_112 Column_113 Column_114 Column_115 Column_116 Column_117 Column_118 Column_119 Column_120 Column_121 Column_122 Column_123 Column_124 Column_125 Column_126 Column_127 Column_128 Column_129 Column_130 Column_131 Column_132 Column_133 Column_134 Column_135 Column_136 Column_137 Column_138 Column_139 Column_140 Column_141 Column_142 Column_143 Column_144 Column_145 Column_146 Column_147 Column_148 Column_149 Column_150 Column_151 Column_152 Column_153 Column_154 Column_155 Column_156 Column_157 Column_158 Column_159 Column_160 Column_161 Column_162 Column_163 Column_164 Column_165 Column_166 Column_167 Column_168 Column_169 Column_170 Column_171 Column_172 Column_173 Column_174 Column_175 Column_176 Column_177 Column_178 Column_179 Column_180 Column_181 Column_182 Column_183 Column_184 Column_185 Column_186 Column_187 Column_188 Column_189 Column_190 Column_191 Column_192 Column_193 Column_194 Column_195 Column_196 Column_197 Column_198 Column_199 Column_200 Column_201 Column_202
feature_infos=[-1.321577498607327:1.9456286415335404] [-0.65506007557912216:1.7256862160066391] [-0.51762901792596594:1.2754839911500926] [-0.45910870863001457:0.95023922446445452] [-0.56623274290705072:1.954302892268158] [-0.4103862307086546:2.0366197815939513] [-2.031782902489033:1.362888294783553] [-2.5904198651605244:1.5535790241936844] [-2.4241250616695256:1.5284872866252983] [-5.772094152661623:1.4310548976072595] [-1.1091767504568841:2.6263118376101748] [-0.65506007557912216:1.7256862160066391] [-1.5058116698266304:1.2378647518295576] [-0.8888626006135959:4.4305933960089918] [-1.3663535901720822:0.75833141179155339] [-1.4937548818511206:0.71557852735966609] [-1.3663535901720825:0.75833141179155372] [-2.6504183767249976:1.5275723929171177] [-4.1540340358492198:2.4180538409682786] [-0.72168262283934881:0.54983502940108331] [-1.2599065105069744:1.2300079161414124] [-13.839010719029631:6.6573960475953671] [-6.3913776773590323:2.2117557587932701] [-0.98030916572878246:5.5659015159082212] [-1.9148445264376117:4.3051119060284968] [-0.80901699437494745:0.80901699437494734] [-0.99999999999999978:0.61803398874989501] [-0.68609139852659262:0.6860913985265924] [-0.73205080756887708:0.63397459621556118] [-0.46642188320543326:0.44297491319880372] [-0.69067910346634165:0.59018587096091046] [-1.5284529693703435:0.71486948874807965] [-0.50414292046901932:0.61337972662799267] [-0.5745053976295228:0.58820402810977079] [-0.92937082523368508:0.67922224947215792] [-0.58734427336645678:0.41145255349768878] [-0.89159257532125991:0.38084699507642611] [-0.89692656939366111:0.37280030550024096] [-0.67106185249394035:0.1789757529541299] [-0.78976758467241848:0.93955627633180205] [-0.69067910346634165:0.59018587096091046] [-0.51380131167635124:0.3606413405228332] [-0.47634965710445676:0.94277636627975336] [-0.31917934344625076:0.15319318223600534] [-0.38447117716227563:0.11922595334819412] [-0.31917934344625049:0.15319318223600559] [-0.33296079962909986:0.30870914948970896] [-0.55752093765313659:0.33931749963866403] [-1.1616346126603669:0.33781393995121717] [-0.36626208447111347:0.28173315512191521] [-0.26690482819664113:0.11954319497681913] [-0.46522208745216037:0.22156933082520369] [-0.26591502601889661:1.999852971227805] [-0.39080915186617765:0.664520280024545] [-0.021816949906249123:0.043633899812498246] [-0.33032766854168405:-0.24942596910418938] [-0.62634416677162164:0.62634416677162175] [-0.66666666666666641:0.33779915320718518] [0.32301535446158519:0.98702448226401052] [0.18419692980732108:0.82728851895087563] [0.09581478925816872:0.68053755404215566] [0.017408095612932318:0.23756188074746498] [0.21382987541905557:0.89578538251087725] [0.16334644326544387:0.84382839904537543] [0.44648553904886135:1.0143539645239052] [0.38439847780231129:1.4608152075365672] [0.33979480151054703:1.4038832052149599] [0.51126056890929017:1.9830920698357333] [0.41107697168829921:1.3855404932877149] [0.18419692980732108:0.82728851895087563] [0.27686791405855032:0.74041475268707113] [0.39964473239885401:1.3415499929706767] [0.46897500599273734:0.72284179077870681] [0.45163160738193769:0.73027398887302164] [0.46897500599273739:0.72284179077870703] [0.50200981037559333:0.89686925247187621] [0.45138110203277548:1.6426566014938913] [0.13070248716218955:0.36557910488086892] [0.38202939416318737:0.6429605189487515] [0.78165287480068835:2.124725308933527] [0.49449629086021329:1.7670326118684996] [0.35891951241734243:2.4887605036071947] [0.44984079840798924:1.4348083925533159] [0.5922103646559892:0.61351655331504218] [0.6180165405913054:0.64183643681707647] [0.043842481959392096:0.3022006543119185] [0.046233569414009808:0.32652998814796957] [-1.593926193582142:-0.48297832335007657] [-1.3862529235701928:-0.19420858771964544] [-2.0230255573690958:0.085009405341414546] [-0.53454862744208331:0.4025465559297764] [-1.5300206649241566:-0.22687589216058549] [-1.8288167248828469:-0.13570918307187099] [-2.031782902489033:-0.51486872690856789] [-2.5904198651605244:-0.32671009314183419] [-2.4241250616695256:-0.36701304016119463] [-5.772094152661623:-0.66090387400088402] [-1.6319980223201804:-0.49507533858284508] [-1.3862529235701928:-0.19420858771964544] [-1.5058116698266304:0.072460434105997562] [-1.0119695921226872:0.031042558077408126] [-1.3663535901720822:-1.055218518390987] [-1.4937548818511206:-0.94434622242088473] [-1.3663535901720825:-1.0552185183909868] [-2.6504183767249976:-0.60135962832785406] [-4.1540340358492198:-0.73278299789084134] [-1.5619740837757019:-0.20830339136280396] [-1.4402463935018295:-0.64282301095598582] [-13.839010719029631:-1.424014819258671] [-6.3913776773590323:-1.0352748416355904] [-0.98030916572878246:-0.31275761848899369] [-1.9148445264376117:-0.10666715575826231] none none [-0.68609139852659262:0.59417258044202237] [-0.73205080756887708:1.793007356604921e-16] [0.43399453675080318:1.9456286415335404] [0.39069095015247618:1.7256862160066391] [-0.34743865369810173:1.2754839911500926] [-0.45910870863001457:0.95023922446445452] [0.47929818877418218:1.954302892268158] [0.40860520314296328:2.0366197815939513] [0.37197364934436444:1.4442722345246579] [0.32508425623279857:1.5535790241936844] [0.29261733580078608:1.5284872866252983] [0.8467273901300103:1.4310548976072595] [0.49163639025125494:2.6263118376101748] [0.39069095015247618:1.7256862160066391] [0.14596693995776408:1.2378647518295576] [0.253842819885506:4.4305933960089918] [0.6251936282578513:0.75833141179155339] [0.61884260601341934:0.74294488039346829] [0.62519362825785152:0.75833141179155372] [0.8369595148868948:1.5930926567654573] [1.3935663881290847:2.4180538409682786] [-0.62849548359180019:0.54983502940108331] [0.61417927094866065:1.2300079161414124] [1.8378925957742223:6.6573960475953671] [1.2963755588015149:2.2117557587932701] [0.41689980923660225:5.5659015159082212] [1.2953003295194367:4.3051119060284968] none none [-0.59417258044202237:0.6860913985265924] [-0.63397459621556118:0.63397459621556151] [-1.645849250292257:2.3845216503730731] [-1.2763136470898058:1.949043922004686] [-1.4504026815093503:1.9767689868376865] [0.044707206711186276:0.77479536635785806] [-1.4715684146531192:2.2158220773139892] [-1.5918269441114492:2.3389697030910592] [-2.6994294065571469:2.8685791461250298] [-2.0221030706810357:2.9326142302382756] [-1.9524869162424479:2.440270787126678] [-5.1355676892365434:5.6656135672750061] [-2.3425544114602666:2.9340267602843562] [-1.2763136470898058:1.949043922004686] [-1.6483503710687302:2.1184539926853909] [-4.3873894577860533:3.6876650289098443] [-2.0303468215476839:2.0425228099589745] [-2.1433651780033527:1.9938186017375101] [-2.0303468215476839:2.0425228099589749] [-3.1240132802585543:3.1340906240604864] [-4.208499957431326:4.6831304632807829] [-0.41175425175981517:1.3257300045589064] [-1.723599759777378:1.6598870559242087] [-12.334767554997482:15.028891753673385] [-6.4476031977252344:6.7133928122945585] [-5.110202577211064:5.0926872472535276] [-3.8458261188685379:4.6300391269549621] [-1.3090169943749472:1.6180339887498949] [-1.6180339887498945:1.6180339887498949] [-0.93721827970531846:0.34304569926329631] [-0.99999999999999989:1] [-2.5063929825626823:0.94695079922500824] [-0.69224701581601811:0.41798258503173935] [-0.3088435925988563:0.37219121936510102] [-0.013076035277978071:0.097174260994983053] [-1.2635133910083933:0.56318346161783095] [-0.83446044343879955:0.50211676021767238] [-2.3920269270803418:1.2741049689222756] [-2.7216688747780671:0.73414456186377097] [-1.9662642725294548:0.57907510383418315] [-4.8460290620174442:3.0219732090464659] [-2.0472949902251369:0.79174816315003482] [-0.69224701581601811:0.41798258503173935] [-1.3388729042069039:1.0915578146620701] [-1.4429059432423292:2.8940554308454689] [-1.3084982474146112:0.99346052971823884] [-1.3369719961189697:0.96891157427289787] [-1.3084982474146114:0.99346052971823906] [-2.1382021259864619:1.1561690366416628] [-3.8900029298598091:3.6297685146736325] [-0.39972492021913658:0.67147901743974903] [-0.95087140474127563:1.3154923983559028] [-3.7040909739727188:3.3384088820695275] [-5.6019153802259396:5.8175303821851054] [-5.4282577173034197:3.5008754468587076] [-2.2859966790759354:2.7540662218113376] none none [-0.34304569926329609:0.2009015049429807] [-0.36602540378443854:0.36602540378443882]
tree_sizes=600 604 601 608 597 602 599 600

Tree=0
num_leaves=5
num_cat=0
split_feature=43 189 169 195
split_gain=0.0116478 0.00182107 0.00152217 0.00077204
threshold=-0.047893635571245818 0.49345406245951079 -0.68734937862853884 0.076731403438685189
decision_type=2 2 2 2
left_child=1 2 -1 -4
right_child=-2 -3 3 -5
leaf_value=-0.00013795484481965905 -0.0011028675861561145 0.00059530962064924936 0.00051632694226516726 0.00010509286156239119
leaf_weight=37 20 24 21 25
leaf_count=37 20 24 21 25
internal_value=4.69242e-06 0.000211713 0.000100793 0.00029283
internal_weight=127 107 83 46
internal_count=127 107 83 46
is_linear=0
shrinkage=1


Tree=1
num_leaves=5
num_cat=0
split_feature=51 66 79 26
split_gain=0.0117617 0.00219049 0.00154155 0.000853336
threshold=0.060489643274594135 0.56742401747897842 1.2394417697152058 -1.0000000180025095e-35
decision_type=2 2 2 2
left_child=1 -1 -3 -4
right_child=-2 2 3 -5
leaf_value=0.00058956146448281295 -0.0011892444775730838 -0.00030162225371336372 0.00034786999802842428 -2.9254150188838445e-05
leaf_weight=21 20 26 30 30
leaf_count=21 20 26 30 30
internal_value=-7.62819e-05 0.000131748 1.99569e-05 0.000159308
internal_weight=127 107 86 60
internal_count=127 107 86 60
is_linear=0
shrinkage=0.05


Tree=2
num_leaves=5
num_cat=0
split_feature=51 66 79 46
split_gain=0.010615 0.00197692 0.00139125 0.000826411
threshold=0.060489643274594135 0.56742401747897842 1.2394417697152058 -0.070197354806514914
decision_type=2 2 2 2
left_child=1 -1 -3 -4
right_child=-2 2 3 -5
leaf_value=0.00056008338651736267 -0.0011297822577762417 -0.00028654114931459142 0.00032492121063114614 -4.7033112943089304e-05
leaf_weight=21 20 26 32 28
leaf_count=21 20 26 32 28
internal_value=-7.24678e-05 0.000125161 1.89591e-05 0.000151343
internal_weight=127 107 86 60
internal_count=127 107 86 60
is_linear=0
shrinkage=0.05


Tree=3
num_leaves=5
num_cat=0
split_feature=45 189 169 157
split_gain=0.00953898 0.00139723 0.00136709 0.000851758
threshold=-0.047893635571245652 0.49345406245951079 -0.68734937862853884 -0.51080493789509585
decision_type=2 2 2 2
left_child=1 2 -1 -4
right_child=-2 -3 3 -5
leaf_value=-0.00020491742785403355 -0.0010711406955306302 0.00045450583617518233 -4.1978908120654525e-05 0.00039203674609430332
leaf_weight=37 20 24 20 26
leaf_count=37 20 24 20 26
internal_value=-6.88444e-05 0.000118501 2.13426e-05 0.000203334
internal_weight=127 107 83 46
internal_count=127 107 83 46
is_linear=0
shrinkage=0.05


Tree=4
num_leaves=5
num_cat=0
split_feature=51 65 79 10
split_gain=0.00929549 0.00185745 0.00169958 0.000566998
threshold=0.060489643274594135 0.69894537520692512 1.2394417697152058 -0.364084974280587
decision_type=2 2 2 2
left_child=1 -1 -3 -4
right_child=-2 2 3 -5
leaf_value=0.00049682469837716782 -0.0010548231618304272 -0.00037141356798119063 0.0003372972757105068 2.116289216320257e-05
leaf_weight=25 20 22 23 37
leaf_count=25 20 22 23 37
internal_value=-6.54022e-05 0.000119536 4.50934e-06 0.000142348
internal_weight=127 107 82 60
internal_count=127 107 82 60
is_linear=0
shrinkage=0.05


Tree=5
num_leaves=5
num_cat=0
split_feature=51 76 18 7
split_gain=0.00894082 0.00283841 0.00134223 0.00134677
threshold=0.014839438300371955 1.2161554155681904 -0.012995981658241755 -0.62887483337470063
decision_type=2 2 2 2
left_child=1 -1 3 -3
right_child=-2 2 -4 -5
leaf_value=0.0007327395334141329 -0.00087429928775009105 -1.0076249347311322e-05 -0.00015435311896097218 0.00054374420682766608
leaf_weight=20 24 23 37 21
leaf_count=20 24 23 37 21
internal_value=-6.82066e-06 0.000199313 6.76026e-05 0.000254247
internal_weight=125 101 81 44
internal_count=125 101 81 44
is_linear=0
shrinkage=0.05


Tree=6
num_leaves=5
num_cat=0
split_feature=175 180 80 161
split_gain=0.00796757 0.0029193 0.0025945 0.00159378
threshold=0.22104545198029416 0.19888741365526175 1.350638624852879 0.32359834917550706
decision_type=2 2 2 2
left_child=1 2 -1 -3
right_child=-2 3 -4 -5
leaf_value=0.00087444423683336937 -0.0008471274605456173 0.00015360684084716133 0.00017399744314249032 -0.00045668820108403458
leaf_weight=20 23 23 39 20
leaf_count=20 23 23 39 20
internal_value=-6.47963e-06 0.000183078 0.000411437 -0.000130251
internal_weight=125 102 59 43
internal_count=125 102 59 43
is_linear=0
shrinkage=0.05


Tree=7
num_leaves=5
num_cat=0
split_feature=175 22 18 24
split_gain=0.00719073 0.00241641 0.00209216 0.00111481
threshold=0.22104545198029416 -0.41059359701868398 -0.15388621053544857 -0.1819844771060101
decision_type=2 2 2 2
left_child=1 -1 -3 -4
right_child=-2 2 3 -5
leaf_value=0.0005695572051519905 -0.00080477110661930694 0.00039642781065776946 -0.000372213151318387 0.0001097119248394544
leaf_weight=28 23 25 28 21
leaf_count=28 23 25 28 21
internal_value=-6.15565e-06 0.000173924 2.42254e-05 -0.000165674
internal_weight=125 102 74 49
internal_count=125 102 74 49
is_linear=0
shrinkage=0.05


end of trees

feature_importances:
Column_51=4
Column_79=3
Column_18=2
Column_66=2
Column_169=2
Column_175=2
Column_189=2
Column_7=1
Column_10=1
Column_22=1
Column_24=1
Column_26=1
Column_43=1
Column_45=1
Column_46=1
Column_65=1
Column_76=1
Column_80=1
Column_157=1
Column_161=1
Column_180=1
Column_195=1

parameters:
[boosting: gbdt]
[objective: regression]
[metric: l2]
[tree_learner: serial]
[device_type: cpu]
[data_sample_strategy: bagging]
[data: ]
[valid: ]
[num_iterations: 200]
[learning_rate: 0.05]
[num_leaves: 31]
[num_threads: -1]
[seed: 0]
[deterministic: 0]
[force_col_wise: 0]
[force_row_wise: 0]
[histogram_pool_size: -1]
[max_depth: -1]
[min_data_in_leaf: 20]
[min_sum_hessian_in_leaf: 0.001]
[bagging_fraction: 0.8]
[pos_bagging_fraction: 1]
[neg_bagging_fraction: 1]
[bagging_freq: 5]
[bagging_seed: 3]
[bagging_by_query: 0]
[feature_fraction: 0.8]
[feature_fraction_bynode: 1]
[feature_fraction_seed: 2]
[extra_trees: 0]
[extra_seed: 6]
[early_stopping_round: 0]
[early_stopping_min_delta: 0]
[first_metric_only: 0]
[max_delta_step: 0]
[lambda_l1: 0]
[lambda_l2: 0]
[linear_lambda: 0]
[min_gain_to_split: 0]
[drop_rate: 0.1]
[max_drop: 50]
[skip_drop: 0.5]
[xgboost_dart_mode: 0]
[uniform_drop: 0]
[drop_seed: 4]
[top_rate: 0.2]
[other_rate: 0.1]
[min_data_per_group: 100]
[max_cat_threshold: 32]
[cat_l2: 10]
[cat_smooth: 10]
[max_cat_to_onehot: 4]
[top_k: 20]
[monotone_constraints: ]
[monotone_constraints_method: basic]
[monotone_penalty: 0]
[feature_contri: ]
[forcedsplits_filename: ]
[refit_decay_rate: 0.9]
[cegb_tradeoff: 1]
[cegb_penalty_split: 0]
[cegb_penalty_feature_lazy: ]
[cegb_penalty_feature_coupled: ]
[path_smooth: 0]
[interaction_constraints: ]
[verbosity: -1]
[saved_feature_importance_type: 0]
[use_quantized_grad: 0]
[num_grad_quant_bins: 4]
[quant_train_renew_leaf: 0]
[stochastic_rounding: 1]
[linear_tree: 0]
[max_bin: 255]
[max_bin_by_feature: ]
[min_data_in_bin: 3]
[bin_construct_sample_cnt: 200000]
[data_random_seed: 1]
[is_enable_sparse: 1]
[enable_bundle: 1]
[use_missing: 1]
[zero_as_missing: 0]
[feature_pre_filter: 1]
[pre_partition: 0]
[two_round: 0]
[header: 0]
[label_column: ]
[weight_column: ]
[group_column: ]
[ignore_column: ]
[categorical_feature: ]
[forcedbins_filename: ]
[precise_float_parser: 0]
[parser_config_file: ]
[objective_seed: 5]
[num_class: 1]
[is_unbalance: 0]
[scale_pos_weight: 1]
[sigmoid: 1]
[boost_from_average: 1]
[reg_sqrt: 0]
[alpha: 0.9]
[fair_c: 1]
[poisson_max_delta_step: 0.7]
[tweedie_variance_power: 1.5]
[lambdarank_truncation_level: 30]
[lambdarank_norm: 1]
[label_gain: ]
[lambdarank_position_bias_regularization: 0]
[eval_at: ]
[multi_error_top_k: 1]
[auc_mu_weights: ]
[num_machines: 1]
[local_listen_port: 12400]
[time_out: 120]
[machine_list_filename: ]
[machines: ]
[gpu_platform_id: -1]
[gpu_device_id: -1]
[gpu_use_dp: 0]
[num_gpu: 1]

end of parameters

pandas_categorical:null
