tree
version=v4
num_class=1
num_tree_per_iteration=1
label_index=0
max_feature_idx=202
objective=regression
feature_names=Column_0 Column_1 Column_2 Column_3 Column_4 Column_5 Column_6 Column_7 Column_8 Column_9 Column_10 Column_11 Column_12 Column_13 Column_14 Column_15 Column_16 Column_17 Column_18 Column_19 Column_20 Column_21 Column_22 Column_23 Column_24 Column_25 Column_26 Column_27 Column_28 Column_29 Column_30 Column_31 Column_32 Column_33 Column_34 Column_35 Column_36 Column_37 Column_38 Column_39 Column_40 Column_41 Column_42 Column_43 Column_44 Column_45 Column_46 Column_47 Column_48 Column_49 Column_50 Column_51 Column_52 Column_53 Column_54 Column_55 Column_56 Column_57 Column_58 Column_59 Column_60 Column_61 Column_62 Column_63 Column_64 Column_65 Column_66 Column_67 Column_68 Column_69 Column_70 Column_71 Column_72 Column_73 Column_74 Column_75 Column_76 Column_77 Column_78 Column_79 Column_80 Column_81 Column_82 Column_83 Column_84 Column_85 Column_86 Column_87 Column_88 Column_89 Column_90 Column_91 Column_92 Column_93 Column_94 Column_95 Column_96 Column_97 Column_98 Column_99 Column_100 Column_101 Column_102 Column_103 Column_104 Column_105 Column_106 Column_107 Column_108 Column_109 Column_110 Column_111 Column_112 Column_113 Column_114 Column_115 Column_116 Column_117 Column_118 Column_119 Column_120 Column_121 Column_122 Column_123 Column_124 Column_125 Column_126 Column_127 Column_128 Column_129 Column_130 Column_131 Column_132 Column_133 Column_134 Column_135 Column_136 Column_137 Column_138 Column_139 Column_140 Column_141 Column_142 Column_143 Column_144 Column_145 Column_146 Column_147 Column_148 Column_149 Column_150 Column_151 Column_152 Column_153 Column_154 Column_155 Column_156 Column_157 Column_158 Column_159 Column_160 Column_161 Column_162 Column_163 Column_164 Column_165 Column_166 Column_167 Column_168 Column_169 Column_170 Column_171 Column_172 Column_173 Column_174 Column_175 Column_176 Column_177 Column_178 Column_179 Column_180 Column_181 Column_182 Column_183 Column_184 Column_185 Column_186 Column_187 Column_188 Column_189 Column_190 Column_191 Column_192 Column_193 Column_194 Column_195 Column_196 Column_197 Column_198 Column_199 Column_200 Column_201 Column_202
feature_infos=[-1.0167831354435455:0.76562890588731047] [-0.73020424935596628:0.54177597226036189] [-0.65107281010850837:0.64214038497315207] [-0.56646670451473669:0.77076152037815004] [-0.69300537828728381:0.62058842911384604] [-0.64933658493147262:0.41517151676820635] [-1.5007525674914945:1.332501345680333] [-1.6411603676100519:0.81326604066668695] [-1.5117766526866019:0.74661892426449272] [-1.8556136968340089:2.3904185736021089] [-0.71700938610309095:0.44110607118712497] [-0.73020424935596628:0.54177597226036189] [-0.98233344844217885:0.51226423313548131] [-1.0010994088936722:1.9118863002654907] [-1.051610124789947:1.0009777808594282] [-0.92854139295151183:0.92786894796034725] [-1.051610124789947:1.0009777808594282] [-1.2639369260110822:1.4498244098349551] [-2.4178185452474996:2.133383837338906] none none [-2.9247277838033412:2.0354537382946183] [-2.4622918997004271:2.5339999500712613] [-0.74381924560216295:2.2560883821453936] [-1.5582711984146722:4.4162426587175867] [-0.80901699437494745:0.80901699437494734] [-0.99999999999999978:0.61803398874989501] [-0.7320508075688773:0.73205080756887764] [-0.73205080756887708:0.63397459621556118] [-0.57216795855350855:0.68360791667984566] [-0.58257479032714443:0.82484862865447106] [-0.52117087095078396:0.87150537912314074] [-0.32455669627994116:0.95132895326219724] [-0.54238854351583321:0.79488977045985909] [-0.56487360064163561:0.78383384594934036] [-0.75498568829611312:0.28064476203645911] [-0.99190711565763079:0.2157722079696999] [-1.0336995755352487:0.23171803004027644] [-0.38862316990779894:0.57137772353959104] [-0.50073024995309312:0.81203513342807732] [-0.58257479032714443:0.82484862865447106] [-0.70404062185578764:0.61969179166274313] [-0.53859584845393538:0.82829700132345074] [-0.35776026453302379:0.17349530967144855] [-0.36428693014059021:0.16134055066748598] [-0.35776026453302384:0.17349530967144849] [-0.57417834699626769:0.22834820159349312] [-0.75647664664439895:0.25068157842864291] none none [-0.16939106406097607:0.12708958963368758] [-0.48697123383614566:0.2204370123270358] [-0.13740688016027869:1.1322826897773441] [-0.23911905273351464:0.66146429908404913] [-0.021816949906249123:0.035300566479164915] [-0.32002710206251911:-0.24942596910418938] [-0.66993587371177699:0.66830127018922214] [-0.6683012701892217:0.439871747423554] [0.10769361561531476:0.48083420917949171] [0.074282748349055364:0.46258460029965609] [0.092027402373257655:0.42795253348729029] [0.024049530240191699:0.31913753519484184] [0.053726227493890583:0.44239660741345554] [0.058855732706290034:0.41071688927084715] [0.39440132905204933:0.8225790017977237] [0.23677118550924667:0.84514668878777555] [0.22063532938580732:0.85652762626942724] [0.46092077652870056:1.076959091198807] [0.072749040768507911:0.40460996291564372] [0.074282748349055364:0.46258460029965609] [0.067265468630708286:0.50514774802213513] [0.20816161990026583:0.56165524816828338] [0.46432694310204536:0.68049192967191918] [0.41467859692230169:0.68072078941785485] [0.46432694310204531:0.68049192967191907] [0.47863699640303847:0.64856985907376441] [0.45763881896078124:1.0490430237906914] none none [0.58365839773615336:0.99218697607508644] [0.60551082583604054:0.9812415083251923] [0.27750190491051868:0.84811235288804354] [0.4849467028293869:1.2484046619613058] [0.59796930336253751:0.60705739575759998] [0.62631354950793039:0.63551500510003045] [0.046779371368190895:0.31120347724026798] [0.046779371368190881:0.32150936847184219] [-1.0167831354435455:-0.188566163754182] [-0.73020424935596628:0.10899693917753196] [-0.65107281010850837:0.61728621662220229] [-0.56646670451473669:0.77076152037815004] [-0.69300537828728381:0.049892340908448587] [-0.64933658493147262:0.18228505763922126] [-1.5007525674914945:-0.53460727586833934] [-1.6411603676100519:-0.1918065919710765] [-1.5117766526866019:-0.097266940981504804] [-1.8556136968340089:-0.51862529652991274] [-0.71700938610309095:0.085771785932232808] [-0.73020424935596628:0.10899693917753196] [-0.98233344844217885:-0.014034297255297031] [-1.0010994088936722:0] [-1.0559835730220648:-0.77550313468453158] [-0.92854139295151183:-0.59170894553408226] [-1.0559835730220646:-0.77550313468453147] [-1.5165609554779278:-0.75078989274415242] [-2.4178185452474996:-1.0739677168439559] none none [-2.9247277838033412:-0.90110106474744778] [-2.4622918997004271:-1.219470258665166] [-0.74381924560216295:-0.056247150422084412] [-1.5582711984146722:-0.73973213193262899] none none [-0.7320508075688773:0.63397459621556163] [-0.73205080756887708:1.793007356604921e-16] [-0.022601982877100187:1.3048461826503865] [-0.38873033867495382:1.2789371313368327] [-0.34936388341013003:1.0015512119163301] [-0.060637182089979307:1.0395451332273249] [-0.38548504336162698:1.279514026093832] [-0.42826505931043946:1.0989019921180565] [0.26681491069182195:1.332501345680333] [-0.23509203022045089:1.0211179127867906] [-0.43587746715888437:1.0081835418787557] [1.25075127343106:2.3904185736021089] [-0.20869169778193747:1.1506333332678558] [-0.38873033867495382:1.2789371313368327] [-0.47463326951377027:1.3391143877279319] [-0.061635422899151693:2.1387132605440047] [0.96576733024544548:1.0070432304130397] [0.746753714310471:0.9989907982594467] [0.96576733024544548:1.0070432304130397] [0.59006674206234622:1.4498244098349551] [1.2283172774672053:2.1442647763619487] none none [1.1972594564864414:2.0354537382946183] [1.0222043710235311:2.5339999500712613] [0.39992387066522039:2.2560883821453936] [0.93060518303514095:4.4162426587175867] none none [-0.63397459621556107:0.73205080756887764] [-0.63397459621556118:0.73205080756887742] [-1.9883643457597304:0.86205260531930195] [-1.688480886786528:0.6431379334792392] [-1.3196037030123144:0.51651733948951517] [-0.97738355907929797:-0.018940235152270293] [-1.6883532304864866:0.70668679267139922] [-1.5369049578025993:0.61937776690717983] [-1.9947168830996056:2.2635225276511441] [-1.7802527955156295:2.0886699811522709] [-1.7496895150146563:2.0162927875247023] [-2.629126934623792:2.9661174119074381] [-1.4671385723694192:0.59592475629430708] [-1.688480886786528:0.6431379334792392] [-2.0780069760761402:0.76663149547837472] [-2.1304109951100059:1.578097951075538] [-1.586009301583676:1.7221811534102112] [-1.3972260434982218:1.5156835846357795] [-1.5860093015836756:1.7221811534102109] [-1.5802247303000108:2.1397578180375203] [-2.9143515575152072:3.4446051209871724] none none [-4.71463328192507:3.213774400676074] [-2.8023834841947117:3.5981215554102084] [-2.5938291998062044:2.36199059921119] [-4.8347795197909891:5.2832902465744587] [-1:1] [-0.99999999999999978:0.99999999999999978] [-1:0.73205080756887764] [-0.99999999999999989:1] [-0.46708152610318843:0.53544660648858111] [-0.26328650456648245:0.17252044861408225] [-0.15980366520574579:0.07705330404147992] [-0.14411060327624436:0.02683144483370424] [-0.34523066421940896:0.27826177431280735] [-0.25288201709147701:0.1783180146360237] [-0.896757336636132:1.0953925455906675] [-0.6004730334099988:0.70667945674318455] [-0.50479682363104028:0.60336824809637346] [-1.8144439913355395:1.5008454800279918] [-0.44237645951009313:0.37047860452602283] [-0.26328650456648245:0.17252044861408225] [-0.51912464338817488:0.30466567759402269] [-0.5554369077867165:1.2134321777786963] [-1.0844450731980293:1.0420649119734913] [-0.90915436251468562:0.966249244703143] [-1.0844450731980291:1.0420649119734913] [-1.318192252280169:1.1889666481579073] [-1.4728911840265759:1.5289715868021843] none none [-1.356451213106848:1.3442271285840812] [-2.4004434378509512:1.9664767358308088] [-1.1526039500677996:1.2678702031586764] [-2.1939659760452921:2.8387734042306332] none none [-0.3660254037844386:0.10717967697244901] [-0.36602540378443854:0.36602540378443882]
tree_sizes=599 698 607 689

Tree=0
num_leaves=5
num_cat=0
split_feature=22 29 29 162
split_gain=0.000494052 0.000263677 0.000397579 0.000218947
threshold=0.83680425546433646 0.061349014190178963 -0.155686444762102 0.15183250992092798
decision_type=2 2 2 2
left_child=1 2 3 -1
right_child=-2 -3 -4 -5
leaf_value=0.00032501879228239431 -1.2209893506208262e-05 0.00010480397567968767 0.00048783632015053603 0.0001468668118103113
leaf_weight=34 21 24 20 35
leaf_count=34 21 24 20 35
internal_value=0.000210497 0.000251885 0.000291547 0.000234652
internal_weight=134 113 89 69
internal_count=134 113 89 69
is_linear=0
shrinkage=1


Tree=1
num_leaves=6
num_cat=0
split_feature=22 68 92 18 177
split_gain=0.000445882 0.000259736 0.000262811 0.000176914 0.000208348
threshold=0.83680425546433646 0.35494214714197153 -0.58042292741535639 0.093303225962310846 -0.028075587163250721
decision_type=2 2 2 2 2
left_child=1 2 3 4 -1
right_child=-2 -3 -4 -5 -6
leaf_value=-1.1490317192510701e-05 -0.00018973774361559967 -0.00010231214524537791 0.00025194086465489817 -5.3337872388790576e-05 0.00020316507356115976
leaf_weight=20 21 20 21 26 26
leaf_count=20 21 20 21 26 26
internal_value=2.18338e-05 6.11524e-05 9.6306e-05 5.09125e-05 0.000109837
internal_weight=134 113 93 72 46
internal_count=134 113 93 72 46
is_linear=0
shrinkage=0.05


Tree=2
num_leaves=5
num_cat=0
split_feature=22 169 154 184
split_gain=0.000402409 0.000250025 0.000248518 0.000444726
threshold=0.83680425546433646 -0.74667401208984219 -0.53407796601074897 0.03479366810169502
decision_type=2 2 2 2
left_child=1 -1 -3 -4
right_child=-2 2 3 -5
leaf_value=0.0002013173883521328 -0.00018025086444270399 0.00013664367434103043 8.174292237196245e-05 -0.00019475918368418488
leaf_weight=24 21 30 33 26
leaf_count=24 21 30 33 26
internal_value=2.07421e-05 5.80947e-05 1.94729e-05 -4.01055e-05
internal_weight=134 113 89 59
internal_count=134 113 89 59
is_linear=0
shrinkage=0.05


Tree=3
num_leaves=6
num_cat=0
split_feature=22 68 6 183 59
split_gain=0.000363174 0.000221325 0.000247406 0.00020097 0.00016585
threshold=0.83680425546433646 0.35494214714197153 -0.32469054086958987 0.19570458106239377 0.18593059393349792
decision_type=2 2 2 2 2
left_child=1 2 -1 4 -4
right_child=-2 -3 3 -5 -6
leaf_value=0.00024344495517652834 -0.00017123831944662103 -9.5704134801053448e-05 0.00019941134214604972 -6.3331638483321993e-05 9.3516238848678778e-06
leaf_weight=20 21 20 24 27 22
leaf_count=20 21 20 24 27 22
internal_value=1.9705e-05 5.519e-05 8.76404e-05 4.49542e-05 0.000108513
internal_weight=134 113 93 73 46
internal_count=134 113 93 73 46
is_linear=0
shrinkage=0.05


end of trees

feature_importances:
Column_22=4
Column_29=2
Column_68=2
Column_6=1
Column_18=1
Column_59=1
Column_92=1
Column_154=1
Column_162=1
Column_169=1
Column_177=1
Column_183=1
Column_184=1

parameters:
[boosting: gbdt]
[objective: regression]
[metric: l2]
[tree_learner: serial]
[device_type: cpu]
[data_sample_strategy: bagging]
[data: ]
[valid: ]
[num_iterations: 200]
[learning_rate: 0.05]
[num_leaves: 31]
[num_threads: -1]
[seed: 0]
[deterministic: 0]
[force_col_wise: 0]
[force_row_wise: 0]
[histogram_pool_size: -1]
[max_depth: -1]
[min_data_in_leaf: 20]
[min_sum_hessian_in_leaf: 0.001]
[bagging_fraction: 0.8]
[pos_bagging_fraction: 1]
[neg_bagging_fraction: 1]
[bagging_freq: 5]
[bagging_seed: 3]
[bagging_by_query: 0]
[feature_fraction: 0.8]
[feature_fraction_bynode: 1]
[feature_fraction_seed: 2]
[extra_trees: 0]
[extra_seed: 6]
[early_stopping_round: 0]
[early_stopping_min_delta: 0]
[first_metric_only: 0]
[max_delta_step: 0]
[lambda_l1: 0]
[lambda_l2: 0]
[linear_lambda: 0]
[min_gain_to_split: 0]
[drop_rate: 0.1]
[max_drop: 50]
[skip_drop: 0.5]
[xgboost_dart_mode: 0]
[uniform_drop: 0]
[drop_seed: 4]
[top_rate: 0.2]
[other_rate: 0.1]
[min_data_per_group: 100]
[max_cat_threshold: 32]
[cat_l2: 10]
[cat_smooth: 10]
[max_cat_to_onehot: 4]
[top_k: 20]
[monotone_constraints: ]
[monotone_constraints_method: basic]
[monotone_penalty: 0]
[feature_contri: ]
[forcedsplits_filename: ]
[refit_decay_rate: 0.9]
[cegb_tradeoff: 1]
[cegb_penalty_split: 0]
[cegb_penalty_feature_lazy: ]
[cegb_penalty_feature_coupled: ]
[path_smooth: 0]
[interaction_constraints: ]
[verbosity: -1]
[saved_feature_importance_type: 0]
[use_quantized_grad: 0]
[num_grad_quant_bins: 4]
[quant_train_renew_leaf: 0]
[stochastic_rounding: 1]
[linear_tree: 0]
[max_bin: 255]
[max_bin_by_feature: ]
[min_data_in_bin: 3]
[bin_construct_sample_cnt: 200000]
[data_random_seed: 1]
[is_enable_sparse: 1]
[enable_bundle: 1]
[use_missing: 1]
[zero_as_missing: 0]
[feature_pre_filter: 1]
[pre_partition: 0]
[two_round: 0]
[header: 0]
[label_column: ]
[weight_column: ]
[group_column: ]
[ignore_column: ]
[categorical_feature: ]
[forcedbins_filename: ]
[precise_float_parser: 0]
[parser_config_file: ]
[objective_seed: 5]
[num_class: 1]
[is_unbalance: 0]
[scale_pos_weight: 1]
[sigmoid: 1]
[boost_from_average: 1]
[reg_sqrt: 0]
[alpha: 0.9]
[fair_c: 1]
[poisson_max_delta_step: 0.7]
[tweedie_variance_power: 1.5]
[lambdarank_truncation_level: 30]
[lambdarank_norm: 1]
[label_gain: ]
[lambdarank_position_bias_regularization: 0]
[eval_at: ]
[multi_error_top_k: 1]
[auc_mu_weights: ]
[num_machines: 1]
[local_listen_port: 12400]
[time_out: 120]
[machine_list_filename: ]
[machines: ]
[gpu_platform_id: -1]
[gpu_device_id: -1]
[gpu_use_dp: 0]
[num_gpu: 1]

end of parameters

pandas_categorical:null
